100 16
0-0 0.340001 0.686224 1.432240 2.083376 0.219552 -1.498736 1.453162 -0.471914 -0.026849 0.918550 0.932252 -0.864946 -1.156121 0.293525 0.609410 -0.411756 
1-0 -0.049872 0.866665 -0.796945 1.253110 0.718985 -2.687225 0.322403 1.647613 0.114501 -0.865398 -0.783302 -1.066977 -0.870836 -1.276805 -0.606995 0.426720 
0-1 -0.098469 0.461483 -0.744960 0.354416 -0.065983 -1.871498 -0.094523 1.860755 -0.828116 -1.405067 -0.573107 -1.780648 -1.184645 -1.591598 -0.518909 0.691672 
1-1 -0.180193 0.060637 1.762782 1.995162 -0.063719 -1.940056 1.177188 -1.373161 0.386298 0.453178 0.287095 -1.241470 -1.668152 -0.382277 -0.103992 -0.784782 
0-2 0.556425 1.452611 1.995249 0.689577 0.263036 -2.126728 1.158447 -1.572217 -0.484649 -0.524938 0.394403 -1.021421 -1.180378 -0.582117 0.480747 -0.694891 
1-2 -0.557700 0.808301 -0.434305 -0.299340 0.936206 -0.697229 0.561428 0.790186 -1.048587 -1.746279 -0.223667 -1.816765 -2.023741 -1.843741 0.547989 0.347021 
0-3 -0.562756 -0.041154 0.377543 -0.652639 -0.788519 -0.349888 0.542189 1.185629 -1.642519 -1.149558 0.232749 -2.470548 -1.460375 -1.478138 0.272214 0.494545 
1-3 0.611118 1.042899 1.715857 -0.562227 0.461702 -1.738484 0.450564 -1.880282 -0.416622 -1.597365 0.038671 -1.661054 -1.653944 -0.428826 -0.946114 -0.317173 
0-4 1.921970 2.278347 0.849006 0.057676 0.760734 -0.833444 0.755817 -1.561262 -0.271886 -1.396550 0.813125 -1.281016 -0.434927 -0.270613 -0.354088 0.601235 
1-4 -1.374686 0.798335 1.628296 0.003108 -0.864021 -0.106397 1.669366 0.890350 -1.177211 -0.776542 0.946393 -2.264394 -0.880140 -0.840873 0.633797 -0.158955 
0-5 -0.678285 -0.221764 1.836129 0.133239 -2.005973 -0.272204 1.496722 1.568448 -0.900649 0.055368 0.407829 -1.934932 -0.458179 -0.314465 -0.463402 0.423934 
1-5 1.140893 1.749758 0.631113 -0.327172 0.489499 -0.214203 1.045745 -1.931527 -0.483953 -0.663632 1.118883 -1.068059 -0.841176 0.672754 -1.932386 2.003136 
0-6 0.633048 2.062898 0.480710 1.217940 0.143191 0.208674 1.993360 -1.399312 0.710075 -0.152566 0.532921 -0.456167 0.001057 0.320619 -1.281983 2.121488 
1-6 -0.390518 0.896881 2.054159 1.526389 -2.175701 -0.899221 1.033103 1.309822 0.017244 -0.214757 0.790116 -1.356288 0.078984 0.515476 -1.074577 0.919838 
0-7 0.458412 -0.538720 2.004879 0.763514 -1.410209 -0.549998 1.099280 1.410225 0.887170 0.395304 -0.088515 -0.963506 -0.142556 0.629998 -1.721222 1.524978 
1-7 -0.513301 0.883523 1.435055 0.536457 -0.442614 0.677298 2.656361 -1.442923 0.461148 0.939500 0.122061 -0.540340 -0.942326 0.032591 -0.813194 2.003638 
0-8 -1.361379 0.719920 1.167953 1.560528 -0.134466 -0.315920 2.588794 -0.357899 0.388509 0.224907 -1.174477 -0.174606 -0.603302 0.138763 -0.881432 1.621556 
1-8 0.768466 -0.025988 1.237824 0.897386 -0.303496 -0.580719 0.079082 1.118719 1.767999 -0.385872 0.487230 -1.197074 -0.273031 0.934533 -1.326069 2.511618 
0-9 0.400768 -0.871769 0.961198 0.384781 0.617844 -0.374466 0.827504 1.122930 1.756508 0.087446 0.117160 -1.161933 -0.617144 0.926672 -0.927949 2.096044 
1-9 -1.634313 -0.008285 1.388623 1.139585 0.120243 -0.561689 2.196364 0.291657 -0.484832 0.646759 -1.280219 -0.366239 -1.644657 -0.000257 0.449020 1.381858 
2-0 1.192000 -0.318835 1.146188 2.449704 -0.097211 -0.340296 1.326184 -0.722601 1.465266 0.441417 0.162010 -1.600893 -1.774122 -0.270393 -0.114982 -0.329995 
2-1 -0.172942 1.597055 -0.812046 0.831944 1.940322 -1.456110 0.866507 0.367047 0.427482 -1.134584 -0.608751 -0.682186 -1.921176 -1.606269 0.253260 0.566074 
2-2 -0.535365 -0.174953 1.450956 0.637072 -0.420537 -1.745212 0.704936 -0.897289 0.837212 -0.701679 -0.850421 -1.772958 -1.956911 -0.671447 -1.737443 -0.649991 
2-3 -1.047832 1.512548 1.005438 -0.028200 1.305050 0.462534 1.537164 0.220194 -0.324368 -1.380175 1.065237 -1.622117 -1.506275 -1.721825 0.821214 0.139795 
2-4 0.235675 0.647716 0.873448 -1.438428 0.539450 -1.228812 0.145564 -0.843860 -0.533152 -0.980761 0.473789 -2.024306 -1.704652 0.745780 -2.111795 0.866605 
2-5 -1.242487 1.692440 2.163200 1.454161 -0.545151 -0.992869 1.678602 0.797804 -0.195270 -1.241491 1.746969 -0.901403 0.085111 -0.432091 -0.112843 0.306373 
2-6 0.216606 0.660154 1.292281 -1.276315 -0.189514 0.351228 1.717152 -1.332208 -0.098300 1.204626 1.457525 -1.074237 -1.379649 0.330169 -1.543870 1.989538 
2-7 0.472412 1.415743 1.123741 1.664628 -1.213312 -0.947561 -0.698049 0.491303 0.766254 -1.035290 1.448305 -1.308436 -0.435720 0.201812 -1.167609 1.946908 
2-8 -0.485240 0.219059 1.926230 -0.088998 0.164652 0.456386 2.184724 -0.590583 -0.453547 1.418236 -0.406809 -0.811558 -1.826716 -0.551816 1.006788 1.572371 
2-9 0.902466 0.013718 0.415257 0.499131 1.106798 -0.016619 -0.215624 0.833024 1.404239 -0.759007 1.362643 -1.647539 -1.428173 0.905968 -0.145790 2.264195 
3-0 0.129111 1.227225 -0.137544 1.979886 1.930331 -1.864542 1.236638 0.885055 0.940014 -0.044462 -0.461845 0.108757 -1.575892 -0.218811 -0.590453 0.442289 
3-1 1.159263 -0.050897 0.217598 1.526937 -0.841521 -0.437353 1.163108 -0.407458 1.620171 -0.624194 -0.818872 -1.922671 -1.801771 -1.072163 -1.585688 -0.357296 
3-2 0.003756 1.667151 0.681430 0.442667 2.402999 0.167880 1.020231 -0.161536 1.281585 -0.967308 0.300131 -0.559694 -1.893801 -1.661151 0.252310 0.943945 
3-3 0.119924 0.736860 1.005963 -0.807097 0.109143 -1.532546 0.057422 0.691935 0.883229 -0.466440 -0.841742 -2.782486 -1.470226 0.239653 -2.079756 -0.107823 
3-4 -0.974122 1.080674 2.383513 0.113577 0.941065 -0.401033 1.837490 0.551872 0.714364 -0.985641 1.755673 -0.564099 -0.107519 -1.982671 -0.290664 0.441884 
3-5 0.305413 0.662524 0.909601 -2.118419 0.385662 -0.757276 0.657631 0.539554 -0.299309 0.871101 1.445330 -1.533872 -1.611766 0.845771 -1.793999 1.417247 
3-6 -0.601882 1.052389 1.413098 1.916709 -0.573116 -1.623774 0.252224 0.339449 0.089039 -1.392865 2.413589 0.115324 -1.015258 -0.964622 -0.834374 1.123313 
3-7 0.678036 1.375677 1.790958 -1.519947 -0.242057 0.158378 1.911485 -0.185514 -0.330595 1.976069 0.666963 -0.684500 -1.619789 -1.173284 -0.038484 1.117677 
3-8 0.909466 0.723754 0.247717 0.889425 0.032000 -0.140203 -1.107618 0.041722 0.527818 -1.250084 1.919734 -1.497127 -2.005431 -0.272669 -0.300613 1.987805 
3-9 -0.080782 -0.229625 1.755181 -0.164345 0.773480 -0.641995 0.726625 0.429486 -0.624702 1.118535 -0.746682 -0.840825 -2.367785 -1.284517 1.526015 1.037259 
4-0 1.899739 0.652762 -0.294771 1.058064 -0.678789 0.789674 1.776434 -0.058368 0.734873 -0.764185 -0.287356 -1.422668 -2.537507 -0.108157 -0.626644 0.099072 
4-1 0.885569 0.699647 0.866402 1.556358 2.626733 -0.193692 1.184979 0.278875 1.163860 0.040245 -0.134591 0.451464 -1.982304 -0.260691 -1.106562 1.024086 
4-2 1.406111 1.390346 0.107812 0.285540 -0.890181 -0.588258 0.719521 1.171013 1.341408 -0.179900 -1.076041 -2.543540 -0.674089 -1.165788 -1.652813 -0.250527 
4-3 0.338910 0.552797 2.140968 -0.212155 1.653707 0.572230 0.941624 0.351882 1.742241 -0.443794 0.675567 -0.604054 -0.697907 -2.141423 -0.966301 1.161370 
4-4 0.629607 1.206987 0.608745 -1.194768 0.570670 -1.077224 0.175407 2.038806 0.367573 0.617472 0.491103 -2.779165 -1.016824 0.678602 -1.041761 0.417068 
4-5 -0.711877 -0.270394 1.910335 0.530129 0.191175 -1.584731 1.180123 1.180495 0.544139 -1.117435 1.514840 0.709045 -0.589172 -2.060162 -1.362346 1.166636 
4-6 1.102636 1.940834 0.967438 -1.338930 -0.001297 -0.529802 1.706276 1.383902 -0.868424 1.315371 1.484502 -0.231089 -1.515236 -0.103955 -1.104371 0.605205 
4-7 -0.192484 -0.252762 0.454629 1.243890 -0.850360 -1.396279 -0.298427 0.103004 -0.120997 -1.061054 1.987170 -0.179443 -2.642595 -1.242539 -0.216932 1.715317 
4-8 1.008830 1.026255 1.692046 -0.702862 0.309782 -1.001841 0.764178 0.455178 -0.817812 1.434701 -0.150588 -0.144840 -2.074800 -2.326718 0.365976 0.240764 
4-9 1.394049 0.142218 -0.033365 0.581103 0.336378 0.493900 0.350234 -0.509833 -0.293973 -0.071944 2.208690 -1.519449 -2.469432 -0.457602 0.721605 1.275974 
5-0 0.678141 -0.406349 0.575083 1.803757 1.859033 -0.677097 1.572994 1.012135 -0.183009 0.107747 0.041934 0.098850 -2.006608 0.816722 -1.575957 0.440842 
5-1 1.951349 1.844158 -0.267093 1.026734 -1.102767 0.753357 1.577059 1.517041 0.152840 -0.303582 -0.707501 -1.363104 -1.241161 -1.058481 -0.233431 0.422386 
5-2 1.333422 -0.292820 1.608523 0.662927 2.376284 1.301736 0.850950 0.240854 0.443268 0.148420 -0.350759 -0.841918 -1.136828 -1.039731 -1.613466 1.409745 
5-3 1.273992 1.448106 0.812192 -0.050076 0.196486 -0.585572 0.645016 1.899792 1.241504 0.907195 -0.056233 -2.900295 0.066646 -0.861198 0.146110 0.254379 
5-4 0.458952 -0.543403 1.589367 -0.786268 0.401846 -0.211462 1.117179 1.262419 0.355286 -0.862509 0.061734 -0.194938 -0.002141 -2.694799 -1.828173 1.775971 
5-5 0.354830 2.059061 0.401372 -0.114440 1.059200 -0.659654 1.281685 2.455837 -0.764227 0.857727 1.475430 -1.485732 -0.242602 0.521840 -0.544411 0.815299 
5-6 -0.556965 -1.504687 0.745147 0.810842 -0.527201 -1.887486 0.880581 1.595372 -0.305843 -0.981011 0.777737 0.641655 -1.756470 -1.406120 -0.557439 2.088165 
5-7 1.006023 1.803934 0.514151 0.443628 0.025507 -1.289851 1.312412 0.937772 -1.479952 1.217951 0.699415 0.670113 -1.330419 -1.518177 -1.328748 -0.068779 
5-8 1.319346 -0.783705 -0.130545 0.991425 -0.907799 -0.708069 0.678611 -0.320542 -0.545518 -0.116338 1.363741 -0.265100 -2.421489 -1.274672 1.011641 1.995297 
5-9 0.653873 -0.298881 1.532750 -0.387769 0.595479 -1.842217 -0.706187 0.592799 -0.942998 0.871137 0.020770 -0.772641 -1.920941 -2.127212 -0.818291 0.303648 
6-0 1.536082 1.169773 0.791971 0.884407 -0.637381 0.826027 1.559812 1.529776 -1.112570 -0.703562 -0.560409 -0.836829 -2.056054 0.395543 0.456530 0.852964 
6-1 0.761672 -1.220428 0.787825 1.054944 2.099949 0.602013 1.553994 0.792474 -1.075124 0.022597 0.252565 -1.266206 -1.601024 0.399303 -1.457486 0.484109 
6-2 1.873912 1.480461 1.241855 1.543320 -0.349458 -0.252580 0.968052 1.428076 0.146062 0.382435 -0.835478 -1.393712 0.280472 -1.479586 1.074727 0.926722 
6-3 1.372568 -0.594453 0.998538 -0.492334 1.195350 1.406878 1.325121 0.336271 -0.818451 -0.702854 -0.352275 -1.453082 -0.382525 -1.743941 -1.220359 1.927969 
6-4 0.088398 1.545434 0.861936 0.377339 1.590689 -0.821519 0.654808 1.627339 0.036976 1.092541 0.933511 -2.253025 0.729470 -0.695395 0.783022 1.427403 
6-5 0.348917 -0.907368 0.371843 -0.383376 -0.106989 -0.984952 1.749021 1.908887 -0.981708 -1.435333 -0.572884 0.226552 -0.486741 -1.456142 -1.463644 2.564864 
6-6 -0.071344 2.076638 -0.546435 1.449401 0.819289 -1.025104 1.331656 1.128291 -1.757546 0.950151 1.238158 -0.332291 -0.134554 -0.581004 -1.150585 1.176141 
6-7 0.954280 -1.105656 -0.056366 0.541024 -0.746874 -2.020736 1.168064 0.959289 0.028233 0.134104 -0.061711 0.278029 -1.911390 -0.302747 0.669588 2.859013 
6-8 0.379902 0.484586 0.460160 0.841348 -0.111759 -1.625571 -0.221427 0.279659 -1.414596 1.154585 0.113729 -0.375453 -1.417693 -1.860577 -2.441530 0.655650 
6-9 2.283787 -0.092685 -0.201027 0.780981 -0.245762 -1.040831 1.612560 -1.001860 -0.044205 0.911828 1.280257 -0.345146 -1.059356 -1.479066 0.760206 1.453660 
7-0 0.500659 -1.480977 0.220957 0.957865 1.162862 -1.060699 1.547602 1.481002 -0.878665 0.181864 1.098713 -1.544266 -1.342449 0.664325 -1.057133 -0.231891 
7-1 1.851924 0.901972 1.989872 1.438784 -0.271373 -0.347122 0.842474 1.212625 -1.582270 -0.552585 -0.949365 -0.576503 -0.632991 -0.120116 0.831963 1.250938 
7-2 1.115113 -1.149114 0.818561 0.393773 1.203502 0.860884 2.195032 -0.308598 -1.481284 -0.262692 0.731075 -2.347908 -0.255526 -0.678556 -0.690214 0.471103 
7-3 0.767556 1.169595 1.821900 0.896551 0.943959 -1.567701 0.117639 0.400148 -0.047593 0.365400 -0.572607 -1.624802 1.013087 -1.282800 1.124343 1.764687 
7-4 1.138285 0.063571 -0.281251 -0.681146 -0.207277 0.428441 2.163268 0.277644 -1.406504 -1.670723 -0.436048 -1.068749 -0.135052 -1.274361 -1.026516 2.223845 
7-5 -0.667725 1.524396 -0.526264 1.249452 1.568892 -1.344218 0.818361 0.033465 -1.278744 0.459611 1.026023 -1.933051 0.474114 -0.351019 0.174677 2.055787 
7-6 0.432015 -0.130960 -0.371440 -0.556317 -0.032285 -1.658922 2.092151 1.568658 -0.322429 -0.940682 -0.948264 0.076285 -1.248287 0.738390 -0.460146 2.494102 
7-7 -0.177210 0.715329 -1.191663 2.013590 -0.416556 -0.757017 0.655631 0.140398 -1.033389 1.284104 0.396151 -1.030767 -0.855309 -1.165791 -1.926583 1.530464 
7-8 2.184026 -0.284845 -0.083184 -0.025222 0.120249 -2.240693 1.724446 -0.018418 1.027253 1.185894 0.107926 0.043904 -1.025996 -0.127307 0.402661 1.867540 
7-9 -0.052200 -0.333759 0.917382 0.173275 -0.495630 -0.704199 -0.923668 0.148106 -0.928802 0.796671 -0.597818 -1.539885 -1.456509 -1.576927 -2.188528 1.747416 
8-0 1.410869 0.126803 2.067317 0.502514 -0.171494 -0.803127 0.267651 1.074680 -2.167352 -1.066460 -0.037348 -0.528713 -1.703763 0.864087 -0.346776 0.782020 
8-1 0.853263 -1.457838 0.894257 0.795282 0.758346 -1.131850 1.778416 0.604331 -0.844339 0.418196 1.729431 -2.193165 0.197901 -0.416597 -0.667964 -0.259221 
8-2 1.523549 0.429940 2.325805 1.235638 0.499839 -1.900869 0.221413 -0.144537 -0.931993 -0.380977 -1.167527 -0.242542 0.436398 -0.618611 -0.206265 1.755811 
8-3 1.099063 -0.315952 0.194455 0.297064 -0.661264 0.047352 2.569307 -1.061593 -1.195767 -0.826076 0.685182 -2.086954 0.650051 -1.495686 -0.566199 0.922140 
8-4 -0.611222 0.586301 0.735046 0.520963 1.634257 -1.729744 0.221607 -0.917462 -0.538175 -0.383171 -0.439740 -2.174079 0.489721 -0.546723 0.357806 2.331307 
8-5 0.117986 0.962279 -0.890825 -0.711856 -0.916114 -1.086236 2.721200 0.225000 -0.356059 -1.891983 -0.459370 -1.165759 -0.362434 0.007533 -1.123402 1.516947 
8-6 -0.670691 0.379345 -1.445021 2.203389 0.206148 -0.704276 1.134894 -0.439117 -0.716483 0.400611 0.309468 -2.414734 -0.785619 0.132266 -0.193069 1.902158 
8-7 0.410260 0.381614 0.199221 -0.863725 0.402599 -2.406049 2.520895 1.018629 1.222036 -0.073610 -0.522136 -0.530944 -1.343222 0.959860 0.408922 1.069786 
8-8 -0.376339 -0.603652 -0.388670 1.044548 -0.795900 0.109353 0.256585 0.526841 -0.032752 1.481649 -0.632903 -1.904980 -1.571304 -1.535693 -1.529836 2.095945 
8-9 1.518317 0.078227 -0.047780 -0.507681 1.160360 -2.335852 2.087586 -0.680491 0.804258 0.996312 0.887693 -1.090044 -0.676173 -1.264238 0.643754 0.404961 
9-0 0.670345 -1.007498 0.526913 0.836654 0.224674 -2.236013 1.182462 1.072001 -0.253893 0.382918 1.505170 -1.557218 0.264345 -0.052169 -0.570014 -0.073277 
9-1 1.484253 -0.394793 2.229214 0.681466 0.516139 -1.788962 0.155990 -0.012375 -1.766882 -0.782580 -0.270530 -0.101265 -0.895982 0.610585 -1.222457 1.290014 
9-2 0.961133 -0.570695 0.829697 0.694943 -0.477141 -1.530607 1.950259 -0.524949 -0.553073 -0.051983 1.336086 -2.106650 1.240663 -0.980901 -0.682327 0.178993 
9-3 0.128812 -0.330002 1.630365 0.564546 1.355455 -1.974136 0.137624 -1.209893 -0.281077 -0.743339 -1.083245 -0.766144 -0.143246 -0.201552 -0.698783 2.406173 
9-4 0.363978 0.422900 -0.437276 -0.038242 -1.565626 -1.563537 2.150462 -0.985281 -0.209133 -1.125364 0.411012 -1.698814 0.501657 -1.158598 -0.669710 1.085078 
9-5 -0.633636 -0.372231 -0.006379 1.178115 0.915278 -0.905742 0.580142 -1.042699 -0.343142 -0.798057 -0.648944 -2.695957 -0.908530 0.649866 0.369061 2.110208 
9-6 -0.671584 1.077774 -0.154170 -0.671972 -0.618092 -2.144151 2.683702 0.143378 0.937609 -1.094028 -0.071021 -1.349293 -0.574080 0.285029 -0.248331 0.630170 
9-7 -0.602250 -0.920904 -0.799316 1.514978 -0.269356 0.104063 1.071025 0.395111 0.565762 0.778153 -0.341356 -2.742704 -1.413030 -0.362200 -0.021321 1.962307 
9-8 0.227876 0.192112 0.431810 -1.126598 0.806303 -2.444763 2.380926 -0.061059 1.039809 0.212531 0.358153 -1.569450 -0.818435 -0.582512 1.019356 0.024685 
9-9 -0.242093 -0.931977 0.627634 0.082803 -0.489373 0.333007 0.015569 0.670423 0.336107 0.713136 -0.931455 -2.096500 -1.567802 -1.208274 -0.628472 2.045204 
