100 16
0-0 -0.385362 0.663124 0.101679 0.451025 0.020488 -0.928149 -0.219153 0.057939 0.073123 0.301161 -0.668562 -0.041292 0.261277 0.106835 0.999429 -0.837674 
1-0 -0.407438 0.632685 -0.063235 0.590866 0.260695 -0.956907 -0.153647 -0.067931 0.213813 0.350749 -0.533400 0.006013 0.211014 0.071405 0.840266 -0.985349 
0-1 -0.407516 0.570768 0.212052 0.328832 -0.454483 -0.827291 -0.196199 0.244079 0.018168 0.107025 -0.752285 0.082179 0.306326 -0.097946 1.096522 -0.921623 
1-1 -0.690024 0.402001 -0.004964 0.652501 -0.061142 -0.976559 -0.151633 -0.147890 0.242669 -0.022697 -0.487984 0.174020 0.215170 -0.367262 0.836886 -1.085798 
0-2 -0.326335 0.097057 0.189154 -0.128876 -0.914806 -0.307289 -0.004846 0.403120 0.026219 -0.605015 -0.534450 0.210634 0.211293 -0.182540 0.868845 -0.850730 
1-2 -0.891593 -0.021123 -0.000515 0.167864 -0.671999 -0.389662 0.019860 -0.065754 0.112835 -0.951965 -0.491749 0.176159 -0.124351 -0.709304 0.559740 -0.852795 
0-3 -0.069877 -0.124248 -0.031133 -0.582100 -1.036323 0.238262 0.125002 0.443530 -0.012196 -0.762097 -0.230812 0.220043 0.232366 -0.077906 0.581743 -0.810881 
1-3 -0.603972 -0.213180 -0.044493 -0.666138 -0.883289 0.271972 -0.035859 0.077187 -0.249439 -1.151526 -0.094251 -0.013121 -0.281376 -0.349252 0.225775 -0.709507 
0-4 0.350187 0.084059 -0.322630 -0.784145 -1.028786 0.505644 0.189085 0.342554 -0.016514 -0.471352 0.310381 0.050013 0.543996 0.122939 0.255293 -0.793150 
1-4 -0.104979 -0.018326 -0.219179 -1.054550 -0.862850 0.446772 0.129611 0.058905 -0.411856 -0.780396 0.618982 -0.404168 0.164061 0.241259 -0.143289 -0.777663 
0-5 0.490733 0.240743 -0.464747 -0.577552 -0.902219 0.617023 0.226776 0.110554 0.293296 0.018487 0.485349 0.013143 0.821711 0.378001 -0.028646 -0.671689 
1-5 0.244879 0.477892 -0.394309 -0.556628 -0.791737 0.462002 0.142306 -0.327943 -0.111503 0.128886 0.856436 -0.626706 0.667731 0.508981 -0.388427 -0.595343 
0-6 0.026432 0.345901 -0.073210 -0.153360 -0.927786 0.693958 0.066553 -0.132678 0.484361 0.673919 0.115530 0.092870 1.043668 0.586840 -0.508998 -0.416930 
1-6 -0.076830 0.651121 -0.026321 0.298454 -0.981520 0.448967 0.095199 -0.516402 0.336682 0.717475 0.389041 -0.416474 0.959444 0.499084 -0.472448 -0.080224 
0-7 -0.593541 0.058288 0.340713 0.099271 -0.575815 0.629769 -0.023011 -0.138894 0.568633 0.543809 -0.427351 0.309559 0.751748 0.613343 -0.481740 -0.091382 
1-7 -0.622879 0.081199 0.407318 0.729445 -0.880070 0.601270 -0.133900 -0.328338 0.452603 0.590533 -0.189200 0.096164 0.641988 0.553277 -0.191530 0.526780 
0-8 -0.994486 -0.362214 0.446814 0.171665 -0.160546 0.595433 -0.158571 -0.064524 0.516785 0.325258 -0.600063 0.426537 0.354958 0.799869 -0.410612 0.055038 
1-8 -1.042357 -0.521750 0.427040 0.389554 -0.238740 0.622091 -0.256065 0.025546 0.506955 0.246244 -0.453950 0.411782 0.202935 0.756709 0.025881 0.567547 
0-9 -1.001462 -0.646750 0.262668 0.015382 0.143602 0.526992 -0.285898 0.070059 0.484101 0.218177 -0.622536 0.535120 0.082289 0.862662 -0.173947 0.148985 
1-9 -1.060611 -0.828972 0.216383 0.088555 0.203401 0.613773 -0.285811 0.130484 0.587397 0.111368 -0.522860 0.607054 -0.056497 0.888165 0.082555 0.407981 
2-0 -0.126904 0.474943 -0.456297 0.591196 0.722004 -0.603822 0.027805 -0.297700 0.536737 0.309447 -0.145017 0.274880 -0.023462 0.237899 0.198215 -1.016311 
2-1 -0.514542 0.118125 -0.260819 0.803609 0.607302 -0.588184 -0.048449 -0.492119 0.738364 -0.191293 0.074552 0.165954 -0.183370 -0.484027 -0.054077 -1.086376 
2-2 -0.828079 -0.179041 -0.031955 0.518911 0.002644 -0.198658 -0.094627 -0.391414 0.512825 -0.983566 0.036557 -0.070019 -0.542615 -0.842442 -0.299116 -0.714245 
2-3 -0.804832 -0.305093 0.187209 -0.374964 -0.272712 0.111797 -0.387550 -0.185469 -0.136783 -1.233190 0.053183 -0.516832 -0.749658 -0.481204 -0.587854 -0.384437 
2-4 -0.460735 0.041264 0.206326 -0.939972 -0.165176 0.078385 -0.315623 -0.140279 -0.372782 -0.625076 0.624603 -0.970819 -0.380462 0.238891 -0.589247 -0.487063 
2-5 -0.181369 0.706745 0.213994 -0.293116 -0.176809 -0.073826 -0.016964 -0.528202 -0.284570 0.131870 1.070721 -1.177317 -0.015982 0.483607 -0.555603 -0.343088 
2-6 -0.149351 0.838886 0.325877 0.681199 -0.589068 0.013020 0.111215 -0.659920 -0.032006 0.553290 0.860268 -0.803414 0.073138 0.275371 -0.152005 0.275537 
2-7 -0.407064 0.349560 0.402403 1.137709 -0.774814 0.380620 -0.219767 -0.404347 0.333120 0.376022 0.558382 -0.223218 -0.113100 0.189429 0.443764 0.890707 
2-8 -0.693351 -0.462919 0.219913 0.593702 -0.225166 0.848645 -0.534431 0.009050 0.592966 0.099755 0.178702 0.129110 -0.316898 0.408835 0.855358 0.814894 
2-9 -0.529990 -0.840498 -0.065361 -0.069013 0.274971 0.840326 -0.569988 0.084291 0.638474 -0.040831 0.151732 0.389246 -0.328644 0.630889 0.559460 0.481427 
3-0 0.400550 0.398219 -0.615017 0.287593 1.011350 -0.157872 0.187678 -0.324987 0.702393 0.292432 -0.001050 0.303525 -0.173545 0.487900 -0.194902 -0.836362 
3-1 0.325317 0.218849 -0.422195 0.594710 0.820226 0.031931 0.153490 -0.427173 1.135640 -0.188088 0.200266 0.242798 -0.320892 -0.079506 -0.614434 -0.754113 
3-2 0.101771 -0.118733 0.011413 0.649412 0.325220 0.072127 -0.369841 -0.254063 1.087568 -0.859390 0.085090 -0.148733 -0.447441 -0.620975 -0.962856 -0.217005 
3-3 -0.194336 -0.165724 0.467717 -0.173456 0.026770 -0.278084 -0.795025 0.031793 0.582676 -0.903187 -0.061796 -0.619281 -0.490680 -0.471641 -0.924424 0.287381 
3-4 -0.374339 0.062300 0.875459 -0.856765 0.381086 -0.506284 -0.538483 0.201510 0.096117 -0.397310 0.277089 -0.824373 -0.502117 0.221699 -0.755457 0.154654 
3-5 -0.276732 0.696206 1.005064 -0.359240 0.357073 -0.697129 0.180636 -0.091325 -0.070508 0.124669 0.885982 -0.575956 -0.365254 0.427047 -0.485368 0.120345 
3-6 0.025825 0.907915 0.844615 0.514643 -0.129905 -0.584440 0.503235 -0.377288 -0.057647 0.157410 1.113890 -0.105701 -0.513569 0.031665 0.174095 0.628106 
3-7 0.218699 0.354658 0.341399 0.739243 -0.399709 0.072488 -0.053999 -0.234141 0.152120 0.043226 0.969490 0.302411 -0.665191 -0.292956 0.892022 0.722955 
3-8 0.141826 -0.288574 -0.108291 0.247936 0.068776 0.578732 -0.648768 -0.026679 0.431055 -0.072482 0.826175 0.275930 -0.591744 -0.162974 1.276241 0.491659 
3-9 0.035605 -0.639689 -0.326590 -0.320386 0.372084 0.674358 -0.901101 0.021095 0.385396 0.078586 0.638374 0.226517 -0.500987 0.148389 0.869389 0.239705 
4-0 0.688622 0.454130 -0.530045 -0.021554 0.781800 0.416512 0.294106 -0.092988 0.368840 0.111200 -0.292028 0.236933 -0.576693 0.792272 -0.401041 -0.707523 
4-1 1.117879 0.408571 -0.385346 0.247269 0.559540 0.645820 0.227615 -0.046680 0.863277 -0.177860 -0.478545 0.261313 -0.496073 0.386735 -0.550554 -0.385618 
4-2 1.059312 0.177807 0.059603 0.359991 0.057460 0.398474 -0.324844 0.201607 1.061954 -0.537204 -0.594471 -0.107464 -0.191974 -0.474358 -0.680932 0.210697 
4-3 0.456251 0.000882 0.525859 -0.282405 -0.131003 -0.233946 -0.809098 0.675238 0.973541 -0.322910 -0.501157 -0.500908 0.054814 -0.570865 -0.529856 0.499511 
4-4 0.053583 0.172678 0.872024 -1.015177 0.279742 -0.576493 -0.405365 1.008702 0.592149 0.091855 -0.115775 -0.374191 -0.048395 -0.013129 -0.262153 0.377108 
4-5 -0.152413 0.511839 1.081264 -0.789995 0.410067 -0.707288 0.460111 0.811463 0.137391 0.186017 0.514951 0.344238 -0.204913 0.332278 -0.201706 0.144894 
4-6 0.066307 0.761966 0.791586 -0.202637 -0.054691 -0.432278 0.813926 0.177851 -0.072693 0.041574 0.766374 0.959341 -0.572917 -0.105973 0.134452 0.205751 
4-7 0.469434 0.528012 0.298687 -0.035646 -0.321541 -0.070771 0.010058 -0.225244 -0.081595 0.109450 0.710758 1.215442 -0.743552 -0.560333 0.570377 0.331134 
4-8 0.704629 0.222845 -0.085967 -0.303960 0.107785 0.202337 -0.977563 -0.285962 -0.068253 0.156321 0.734484 0.688760 -0.482676 -0.422110 0.973632 0.093733 
4-9 0.442713 -0.236325 -0.380311 -0.463449 0.411797 0.316092 -1.260364 -0.185868 -0.022191 0.330619 0.492651 0.264151 -0.161734 -0.110853 0.735427 -0.138028 
5-0 0.483293 0.375208 -0.166118 0.047506 0.428967 0.624561 0.236075 0.195919 -0.333721 0.116368 -0.642645 0.063188 -0.864209 0.933288 -0.170069 -0.516034 
5-1 0.957038 0.505046 0.069674 0.337846 0.091318 0.820546 0.273771 0.341379 -0.145417 -0.003633 -0.947335 -0.045355 -0.808242 0.499650 -0.144781 -0.162376 
5-2 1.117157 0.530544 0.247946 0.363615 -0.177890 0.712984 0.094249 0.378003 0.146897 -0.072710 -1.033063 -0.454299 -0.191268 -0.593038 -0.099939 0.311939 
5-3 0.628127 0.280064 0.309870 -0.095526 -0.010100 0.180863 -0.245568 0.821255 0.473604 0.288776 -0.658291 -0.730949 0.515050 -1.009694 0.201268 0.500524 
5-4 -0.071101 0.211061 0.253104 -0.765693 0.654257 -0.166832 -0.069452 1.283267 0.471190 0.532078 -0.115113 -0.358393 0.753374 -0.453367 0.268794 0.371706 
5-5 -0.388194 0.181316 0.181246 -0.612422 0.701601 -0.184548 0.595892 1.400658 -0.038738 0.340767 0.391780 0.534235 0.331349 -0.089177 -0.096470 -0.019165 
5-6 -0.257109 0.396013 0.136766 -0.230639 0.074502 -0.165577 0.759065 0.837205 -0.343898 0.116788 0.399176 1.430670 -0.175484 -0.221577 -0.501538 0.050230 
5-7 0.170466 0.471459 0.093362 -0.144350 -0.341460 -0.106370 -0.401839 0.155249 -0.488097 0.354831 0.175414 1.616235 -0.426078 -0.525481 -0.435535 0.095612 
5-8 0.520655 0.242990 -0.177545 -0.453418 -0.081100 0.000655 -1.421464 -0.245284 -0.666791 0.524572 0.109267 0.795281 -0.235690 -0.475965 -0.075221 -0.180834 
5-9 0.372581 -0.162616 -0.305822 -0.468262 0.258601 0.157562 -1.349631 -0.409044 -0.395741 0.632138 0.122482 0.132968 -0.065689 -0.238842 0.203029 -0.287764 
6-0 0.392610 0.052214 0.168110 0.286779 0.199641 0.473439 0.123560 0.458018 -0.917139 0.064071 -0.440997 -0.198838 -0.831733 0.905395 0.149644 -0.405159 
6-1 0.358546 -0.018365 0.541336 0.541098 0.173358 0.664884 0.478025 0.436002 -1.088017 0.003230 -0.667849 -0.381958 -0.688863 0.439800 0.111117 -0.208572 
6-2 0.500412 0.064975 0.635627 0.586166 0.164513 0.949928 0.573659 0.209456 -0.752263 -0.053335 -0.658622 -0.482704 -0.080879 -0.811082 0.184611 0.060551 
6-3 0.163944 0.212247 0.262179 0.106643 0.442429 0.831045 0.329110 0.145327 -0.040881 0.185134 -0.301621 -0.590790 0.784778 -1.344093 0.402502 0.172944 
6-4 -0.589329 0.241224 -0.333806 -0.304079 0.971951 0.504930 0.176153 0.558538 -0.048026 0.346197 0.073176 -0.521213 0.936504 -0.702115 0.325970 0.212085 
6-5 -0.810350 0.256296 -0.781978 -0.002129 0.891952 0.265704 0.326262 1.087341 -0.470138 0.039801 0.455054 0.119024 0.575977 -0.199900 -0.188812 0.107201 
6-6 -0.496272 0.215763 -0.838583 0.497098 -0.077520 0.004042 0.380922 0.940257 -0.594921 -0.074123 0.382723 0.788511 0.087142 -0.212440 -0.848385 0.240551 
6-7 -0.090740 0.002716 -0.529606 0.451214 -0.522909 -0.317449 -0.303430 0.318016 -0.817170 0.481070 -0.088799 0.843403 -0.225003 -0.532751 -1.005032 0.186565 
6-8 -0.036241 -0.196540 -0.305372 -0.055071 -0.171641 -0.317884 -0.915041 -0.283240 -0.954993 0.951375 -0.400009 0.222422 -0.116184 -0.524129 -0.718261 -0.034246 
6-9 0.035537 -0.309766 -0.053232 -0.358892 0.213991 -0.118677 -1.099548 -0.614858 -0.670984 1.086602 -0.337561 -0.165871 -0.124957 -0.260912 -0.250315 -0.249193 
7-0 0.439173 -0.579400 0.157457 0.573701 0.188109 0.031335 -0.114575 0.677553 -0.904681 0.046319 0.029024 -0.427780 -0.428654 0.943438 0.275446 -0.408477 
7-1 0.380907 -0.969448 0.670395 0.813256 0.262559 0.135185 0.380639 0.370771 -1.066022 -0.196833 0.060008 -0.295580 -0.074379 0.416204 0.178266 -0.376904 
7-2 0.377322 -0.796730 0.745806 0.561157 0.393641 0.609408 0.740518 -0.299227 -0.832663 -0.389316 -0.047273 -0.027401 0.417959 -0.487380 0.054815 -0.081179 
7-3 -0.030676 -0.168679 0.312918 -0.046392 0.692718 0.810693 0.646222 -0.784773 -0.408657 -0.283664 0.090971 0.007674 0.849820 -0.883973 0.180547 0.185356 
7-4 -0.631872 0.464086 -0.371929 -0.169054 1.089544 0.521458 0.176775 -0.586405 -0.529984 -0.306708 -0.072397 -0.245036 0.873304 -0.354684 0.294104 0.513554 
7-5 -0.653211 0.489063 -1.203499 0.209768 0.684504 0.089278 -0.028317 0.203702 -0.684635 -0.484878 0.052801 -0.283101 0.402853 0.118831 0.101528 0.712178 
7-6 -0.305201 0.108860 -1.492974 0.467138 -0.160133 -0.223270 0.282110 0.547389 -0.342226 -0.299735 0.047324 -0.072631 -0.013848 0.095243 -0.435987 0.723611 
7-7 -0.053159 -0.427693 -1.148868 0.387779 -0.629788 -0.554416 0.385241 0.284216 -0.335697 0.432125 -0.062271 0.062690 -0.372939 -0.486846 -0.788479 0.516283 
7-8 -0.177018 -0.781985 -0.503992 -0.065913 -0.345619 -0.485479 0.081234 -0.238457 -0.478646 1.128739 -0.397538 -0.212304 -0.347499 -0.566743 -0.733381 0.031387 
7-9 -0.172998 -0.637228 0.015418 -0.503434 0.006198 -0.288504 -0.191034 -0.629670 -0.360957 1.223127 -0.523830 -0.297684 -0.295781 -0.323117 -0.247362 -0.181498 
8-0 0.679139 -0.907872 0.156850 0.734738 0.099784 -0.482375 -0.447168 0.696424 -0.419452 -0.075087 0.435327 -0.321907 0.380016 0.761114 0.176904 -0.225079 
8-1 0.569313 -1.168845 0.389775 0.727410 0.119757 -0.552258 -0.072656 0.346176 -0.375219 -0.225646 0.548834 -0.147432 0.636440 0.422247 0.007545 -0.243097 
8-2 0.662270 -1.215748 0.586137 0.260211 0.243498 -0.246769 0.379087 -0.601967 -0.361045 -0.489577 0.245241 0.481059 0.828976 0.030215 -0.178932 -0.048031 
8-3 0.284123 -0.290088 0.357897 -0.395224 0.532445 0.035380 0.402482 -1.195993 -0.247408 -0.585290 -0.130343 0.528634 0.915824 -0.185112 -0.105369 0.280995 
8-4 -0.100180 0.559405 -0.160853 -0.451231 0.512669 -0.086358 0.118251 -1.102443 -0.572188 -0.710580 -0.583475 0.193748 0.636669 0.298012 0.174132 0.660959 
8-5 -0.085974 0.535209 -0.920186 -0.240973 0.247641 -0.390825 -0.144631 -0.421952 -0.428080 -0.671255 -0.512204 -0.293284 0.183414 0.537989 0.374102 1.015298 
8-6 0.049798 0.020345 -1.335738 -0.113710 -0.308227 -0.657060 0.385442 0.135992 0.110573 -0.410132 -0.289849 -0.475600 -0.212174 0.392143 0.241365 0.899899 
8-7 0.167491 -0.633593 -1.078091 -0.071449 -0.583908 -0.615056 0.894803 0.083950 0.400507 0.232272 -0.065492 -0.341960 -0.424742 -0.147163 0.002668 0.526913 
8-8 -0.147630 -0.965673 -0.422181 -0.463627 -0.352287 -0.185502 1.028686 -0.313197 0.246804 1.000450 -0.176691 -0.349955 -0.612588 -0.355657 -0.056437 -0.087799 
8-9 -0.177635 -0.783333 -0.011705 -0.620893 -0.107168 -0.162563 0.603738 -0.534902 0.123483 1.200013 -0.244382 -0.252257 -0.577849 -0.331582 0.124587 -0.214799 
9-0 0.610647 -0.846084 0.074379 0.626732 0.020571 -0.762137 -0.528536 0.506686 -0.122159 -0.149810 0.509949 -0.165955 0.730053 0.587028 0.058829 -0.011132 
9-1 0.716949 -0.991194 0.260937 0.536153 0.040596 -0.877086 -0.316508 0.214077 -0.054328 -0.278289 0.504158 0.068694 0.930012 0.490211 -0.050925 0.020995 
9-2 0.590528 -0.756906 0.404714 -0.026464 0.059601 -0.747651 0.002840 -0.454922 -0.019600 -0.339202 0.085662 0.529918 0.914162 0.287259 -0.193747 0.052956 
9-3 0.495784 -0.230382 0.396267 -0.372495 0.158294 -0.654982 0.102079 -0.928219 -0.087391 -0.584311 -0.369922 0.629391 0.870526 0.337690 -0.169544 0.265116 
9-4 0.315301 0.351231 -0.004337 -0.583138 0.024630 -0.610776 -0.017292 -0.868579 -0.259043 -0.581666 -0.774285 0.330368 0.485984 0.572836 0.123237 0.652042 
9-5 0.171278 0.294600 -0.394776 -0.573802 -0.005470 -0.687840 0.013774 -0.514719 -0.077685 -0.452229 -0.708654 -0.133385 -0.047016 0.602205 0.546635 0.843045 
9-6 0.279971 -0.006187 -0.731736 -0.530368 -0.282085 -0.770054 0.514088 -0.216469 0.271066 -0.254644 -0.327610 -0.442496 -0.329996 0.504665 0.576753 0.827317 
9-7 0.217714 -0.497770 -0.567336 -0.431047 -0.242772 -0.591341 1.029690 -0.193976 0.445062 0.129170 -0.219096 -0.524875 -0.449086 0.209998 0.567528 0.396308 
9-8 -0.005020 -0.728854 -0.197772 -0.513523 -0.171455 -0.206583 1.095215 -0.351883 0.438061 0.705918 -0.138453 -0.411942 -0.572797 -0.069052 0.430886 -0.062102 
9-9 -0.102000 -0.722313 0.040823 -0.630091 -0.098341 -0.033872 0.869902 -0.483054 0.364830 0.937834 -0.097333 -0.321361 -0.546215 -0.226111 0.408792 -0.228891 
